digraph Tree {
node [shape=box] ;
0 [label="LongFace <= 190.15\nentropy = 1.852\nsamples = 8404\nvalue = [986, 1056, 2398, 100, 3860, 4]"] ;
1 [label="LongFace <= 125.23\nentropy = 0.759\nsamples = 4920\nvalue = [0, 1056, 0, 0, 3860, 4]"] ;
0 -> 1 [labeldistance=2.5, labelangle=45, headlabel="True"] ;
2 [label="entropy = 0.0\nsamples = 2496\nvalue = [0, 0, 0, 0, 2496, 0]"] ;
1 -> 2 ;
3 [label="LongFace <= 160.065\nentropy = 1.004\nsamples = 2424\nvalue = [0, 1056, 0, 0, 1364, 4]"] ;
1 -> 3 ;
4 [label="Shape <= 13.5\nentropy = 0.782\nsamples = 1240\nvalue = [0, 288, 0, 0, 952, 0]"] ;
3 -> 4 ;
5 [label="Shape <= 11.0\nentropy = 0.979\nsamples = 684\nvalue = [0, 284, 0, 0, 400, 0]"] ;
4 -> 5 ;
6 [label="entropy = 0.0\nsamples = 400\nvalue = [0, 0, 0, 0, 400, 0]"] ;
5 -> 6 ;
7 [label="entropy = 0.0\nsamples = 284\nvalue = [0, 284, 0, 0, 0, 0]"] ;
5 -> 7 ;
8 [label="Shape <= 16.5\nentropy = 0.062\nsamples = 556\nvalue = [0, 4, 0, 0, 552, 0]"] ;
4 -> 8 ;
9 [label="entropy = 0.0\nsamples = 496\nvalue = [0, 0, 0, 0, 496, 0]"] ;
8 -> 9 ;
10 [label="LongFace <= 153.11\nentropy = 0.353\nsamples = 60\nvalue = [0, 4, 0, 0, 56, 0]"] ;
8 -> 10 ;
11 [label="entropy = 0.0\nsamples = 52\nvalue = [0, 0, 0, 0, 52, 0]"] ;
10 -> 11 ;
12 [label="LongFace <= 154.54\nentropy = 1.0\nsamples = 8\nvalue = [0, 4, 0, 0, 4, 0]"] ;
10 -> 12 ;
13 [label="entropy = 0.0\nsamples = 4\nvalue = [0, 4, 0, 0, 0, 0]"] ;
12 -> 13 ;
14 [label="entropy = 0.0\nsamples = 4\nvalue = [0, 0, 0, 0, 4, 0]"] ;
12 -> 14 ;
15 [label="Transparant <= 0.5\nentropy = 0.963\nsamples = 1184\nvalue = [0, 768, 0, 0, 412, 4]"] ;
3 -> 15 ;
16 [label="Shape <= 7.5\nentropy = 0.033\nsamples = 592\nvalue = [0, 590, 0, 0, 0, 2]"] ;
15 -> 16 ;
17 [label="Shape <= 6.5\nentropy = 0.151\nsamples = 92\nvalue = [0, 90, 0, 0, 0, 2]"] ;
16 -> 17 ;
18 [label="entropy = 0.0\nsamples = 60\nvalue = [0, 60, 0, 0, 0, 0]"] ;
17 -> 18 ;
19 [label="LongFace <= 171.25\nentropy = 0.337\nsamples = 32\nvalue = [0, 30, 0, 0, 0, 2]"] ;
17 -> 19 ;
20 [label="LongFace <= 169.75\nentropy = 0.592\nsamples = 14\nvalue = [0, 12, 0, 0, 0, 2]"] ;
19 -> 20 ;
21 [label="entropy = 0.0\nsamples = 12\nvalue = [0, 12, 0, 0, 0, 0]"] ;
20 -> 21 ;
22 [label="entropy = 0.0\nsamples = 2\nvalue = [0, 0, 0, 0, 0, 2]"] ;
20 -> 22 ;
23 [label="entropy = 0.0\nsamples = 18\nvalue = [0, 18, 0, 0, 0, 0]"] ;
19 -> 23 ;
24 [label="entropy = 0.0\nsamples = 500\nvalue = [0, 500, 0, 0, 0, 0]"] ;
16 -> 24 ;
25 [label="Shape <= 13.5\nentropy = 0.913\nsamples = 592\nvalue = [0, 178, 0, 0, 412, 2]"] ;
15 -> 25 ;
26 [label="Shape <= 11.0\nentropy = 1.047\nsamples = 282\nvalue = [0, 154, 0, 0, 126, 2]"] ;
25 -> 26 ;
27 [label="LongFace <= 172.41\nentropy = 0.701\nsamples = 150\nvalue = [0, 22, 0, 0, 126, 2]"] ;
26 -> 27 ;
28 [label="LongFace <= 169.825\nentropy = 0.196\nsamples = 66\nvalue = [0, 0, 0, 0, 64, 2]"] ;
27 -> 28 ;
29 [label="entropy = 0.0\nsamples = 56\nvalue = [0, 0, 0, 0, 56, 0]"] ;
28 -> 29 ;
30 [label="LongFace <= 170.17\nentropy = 0.722\nsamples = 10\nvalue = [0, 0, 0, 0, 8, 2]"] ;
28 -> 30 ;
31 [label="Shape <= 4.0\nentropy = 1.0\nsamples = 4\nvalue = [0, 0, 0, 0, 2, 2]"] ;
30 -> 31 ;
32 [label="entropy = 0.0\nsamples = 2\nvalue = [0, 0, 0, 0, 2, 0]"] ;
31 -> 32 ;
33 [label="entropy = 0.0\nsamples = 2\nvalue = [0, 0, 0, 0, 0, 2]"] ;
31 -> 33 ;
34 [label="entropy = 0.0\nsamples = 6\nvalue = [0, 0, 0, 0, 6, 0]"] ;
30 -> 34 ;
35 [label="Shape <= 6.5\nentropy = 0.83\nsamples = 84\nvalue = [0, 22, 0, 0, 62, 0]"] ;
27 -> 35 ;
36 [label="LongFace <= 177.36\nentropy = 0.297\nsamples = 38\nvalue = [0, 2, 0, 0, 36, 0]"] ;
35 -> 36 ;
37 [label="LongFace <= 176.86\nentropy = 0.722\nsamples = 10\nvalue = [0, 2, 0, 0, 8, 0]"] ;
36 -> 37 ;
38 [label="entropy = 0.0\nsamples = 8\nvalue = [0, 0, 0, 0, 8, 0]"] ;
37 -> 38 ;
39 [label="entropy = 0.0\nsamples = 2\nvalue = [0, 2, 0, 0, 0, 0]"] ;
37 -> 39 ;
40 [label="entropy = 0.0\nsamples = 28\nvalue = [0, 0, 0, 0, 28, 0]"] ;
36 -> 40 ;
41 [label="Shape <= 7.5\nentropy = 0.988\nsamples = 46\nvalue = [0, 20, 0, 0, 26, 0]"] ;
35 -> 41 ;
42 [label="entropy = 0.0\nsamples = 18\nvalue = [0, 18, 0, 0, 0, 0]"] ;
41 -> 42 ;
43 [label="LongFace <= 179.98\nentropy = 0.371\nsamples = 28\nvalue = [0, 2, 0, 0, 26, 0]"] ;
41 -> 43 ;
44 [label="LongFace <= 178.475\nentropy = 0.811\nsamples = 8\nvalue = [0, 2, 0, 0, 6, 0]"] ;
43 -> 44 ;
45 [label="entropy = 0.0\nsamples = 6\nvalue = [0, 0, 0, 0, 6, 0]"] ;
44 -> 45 ;
46 [label="entropy = 0.0\nsamples = 2\nvalue = [0, 2, 0, 0, 0, 0]"] ;
44 -> 46 ;
47 [label="entropy = 0.0\nsamples = 20\nvalue = [0, 0, 0, 0, 20, 0]"] ;
43 -> 47 ;
48 [label="entropy = 0.0\nsamples = 132\nvalue = [0, 132, 0, 0, 0, 0]"] ;
26 -> 48 ;
49 [label="LongFace <= 171.455\nentropy = 0.393\nsamples = 310\nvalue = [0, 24, 0, 0, 286, 0]"] ;
25 -> 49 ;
50 [label="entropy = 0.0\nsamples = 112\nvalue = [0, 0, 0, 0, 112, 0]"] ;
49 -> 50 ;
51 [label="Shape <= 14.5\nentropy = 0.533\nsamples = 198\nvalue = [0, 24, 0, 0, 174, 0]"] ;
49 -> 51 ;
52 [label="entropy = 0.0\nsamples = 72\nvalue = [0, 0, 0, 0, 72, 0]"] ;
51 -> 52 ;
53 [label="LongFace <= 172.295\nentropy = 0.702\nsamples = 126\nvalue = [0, 24, 0, 0, 102, 0]"] ;
51 -> 53 ;
54 [label="entropy = 0.0\nsamples = 4\nvalue = [0, 4, 0, 0, 0, 0]"] ;
53 -> 54 ;
55 [label="LongFace <= 188.785\nentropy = 0.644\nsamples = 122\nvalue = [0, 20, 0, 0, 102, 0]"] ;
53 -> 55 ;
56 [label="LongFace <= 180.127\nentropy = 0.585\nsamples = 114\nvalue = [0, 16, 0, 0, 98, 0]"] ;
55 -> 56 ;
57 [label="LongFace <= 178.505\nentropy = 0.722\nsamples = 70\nvalue = [0, 14, 0, 0, 56, 0]"] ;
56 -> 57 ;
58 [label="LongFace <= 177.28\nentropy = 0.516\nsamples = 52\nvalue = [0, 6, 0, 0, 46, 0]"] ;
57 -> 58 ;
59 [label="LongFace <= 176.965\nentropy = 0.61\nsamples = 40\nvalue = [0, 6, 0, 0, 34, 0]"] ;
58 -> 59 ;
60 [label="LongFace <= 173.155\nentropy = 0.485\nsamples = 38\nvalue = [0, 4, 0, 0, 34, 0]"] ;
59 -> 60 ;
61 [label="LongFace <= 172.96\nentropy = 0.918\nsamples = 6\nvalue = [0, 2, 0, 0, 4, 0]"] ;
60 -> 61 ;
62 [label="entropy = 0.0\nsamples = 4\nvalue = [0, 0, 0, 0, 4, 0]"] ;
61 -> 62 ;
63 [label="entropy = 0.0\nsamples = 2\nvalue = [0, 2, 0, 0, 0, 0]"] ;
61 -> 63 ;
64 [label="LongFace <= 174.955\nentropy = 0.337\nsamples = 32\nvalue = [0, 2, 0, 0, 30, 0]"] ;
60 -> 64 ;
65 [label="entropy = 0.0\nsamples = 20\nvalue = [0, 0, 0, 0, 20, 0]"] ;
64 -> 65 ;
66 [label="LongFace <= 175.75\nentropy = 0.65\nsamples = 12\nvalue = [0, 2, 0, 0, 10, 0]"] ;
64 -> 66 ;
67 [label="entropy = 0.0\nsamples = 2\nvalue = [0, 2, 0, 0, 0, 0]"] ;
66 -> 67 ;
68 [label="entropy = 0.0\nsamples = 10\nvalue = [0, 0, 0, 0, 10, 0]"] ;
66 -> 68 ;
69 [label="entropy = 0.0\nsamples = 2\nvalue = [0, 2, 0, 0, 0, 0]"] ;
59 -> 69 ;
70 [label="entropy = 0.0\nsamples = 12\nvalue = [0, 0, 0, 0, 12, 0]"] ;
58 -> 70 ;
71 [label="LongFace <= 178.705\nentropy = 0.991\nsamples = 18\nvalue = [0, 8, 0, 0, 10, 0]"] ;
57 -> 71 ;
72 [label="entropy = 0.0\nsamples = 2\nvalue = [0, 2, 0, 0, 0, 0]"] ;
71 -> 72 ;
73 [label="LongFace <= 179.325\nentropy = 0.954\nsamples = 16\nvalue = [0, 6, 0, 0, 10, 0]"] ;
71 -> 73 ;
74 [label="entropy = 0.0\nsamples = 4\nvalue = [0, 0, 0, 0, 4, 0]"] ;
73 -> 74 ;
75 [label="LongFace <= 179.385\nentropy = 1.0\nsamples = 12\nvalue = [0, 6, 0, 0, 6, 0]"] ;
73 -> 75 ;
76 [label="entropy = 0.0\nsamples = 2\nvalue = [0, 2, 0, 0, 0, 0]"] ;
75 -> 76 ;
77 [label="LongFace <= 179.73\nentropy = 0.971\nsamples = 10\nvalue = [0, 4, 0, 0, 6, 0]"] ;
75 -> 77 ;
78 [label="entropy = 0.0\nsamples = 4\nvalue = [0, 0, 0, 0, 4, 0]"] ;
77 -> 78 ;
79 [label="LongFace <= 179.985\nentropy = 0.918\nsamples = 6\nvalue = [0, 4, 0, 0, 2, 0]"] ;
77 -> 79 ;
80 [label="entropy = 0.0\nsamples = 2\nvalue = [0, 2, 0, 0, 0, 0]"] ;
79 -> 80 ;
81 [label="LongFace <= 180.057\nentropy = 1.0\nsamples = 4\nvalue = [0, 2, 0, 0, 2, 0]"] ;
79 -> 81 ;
82 [label="entropy = 0.0\nsamples = 2\nvalue = [0, 0, 0, 0, 2, 0]"] ;
81 -> 82 ;
83 [label="entropy = 0.0\nsamples = 2\nvalue = [0, 2, 0, 0, 0, 0]"] ;
81 -> 83 ;
84 [label="LongFace <= 184.84\nentropy = 0.267\nsamples = 44\nvalue = [0, 2, 0, 0, 42, 0]"] ;
56 -> 84 ;
85 [label="entropy = 0.0\nsamples = 26\nvalue = [0, 0, 0, 0, 26, 0]"] ;
84 -> 85 ;
86 [label="LongFace <= 185.055\nentropy = 0.503\nsamples = 18\nvalue = [0, 2, 0, 0, 16, 0]"] ;
84 -> 86 ;
87 [label="entropy = 0.0\nsamples = 2\nvalue = [0, 2, 0, 0, 0, 0]"] ;
86 -> 87 ;
88 [label="entropy = 0.0\nsamples = 16\nvalue = [0, 0, 0, 0, 16, 0]"] ;
86 -> 88 ;
89 [label="LongFace <= 188.925\nentropy = 1.0\nsamples = 8\nvalue = [0, 4, 0, 0, 4, 0]"] ;
55 -> 89 ;
90 [label="entropy = 0.0\nsamples = 2\nvalue = [0, 2, 0, 0, 0, 0]"] ;
89 -> 90 ;
91 [label="LongFace <= 189.275\nentropy = 0.918\nsamples = 6\nvalue = [0, 2, 0, 0, 4, 0]"] ;
89 -> 91 ;
92 [label="entropy = 0.0\nsamples = 2\nvalue = [0, 0, 0, 0, 2, 0]"] ;
91 -> 92 ;
93 [label="LongFace <= 189.62\nentropy = 1.0\nsamples = 4\nvalue = [0, 2, 0, 0, 2, 0]"] ;
91 -> 93 ;
94 [label="entropy = 0.0\nsamples = 2\nvalue = [0, 2, 0, 0, 0, 0]"] ;
93 -> 94 ;
95 [label="entropy = 0.0\nsamples = 2\nvalue = [0, 0, 0, 0, 2, 0]"] ;
93 -> 95 ;
96 [label="Transparant <= 0.5\nentropy = 1.033\nsamples = 3484\nvalue = [986, 0, 2398, 100, 0, 0]"] ;
0 -> 96 [labeldistance=2.5, labelangle=-45, headlabel="False"] ;
97 [label="LongFace <= 274.98\nentropy = 1.141\nsamples = 1742\nvalue = [982, 0, 710, 50, 0, 0]"] ;
96 -> 97 ;
98 [label="Shape <= 13.5\nentropy = 0.28\nsamples = 1030\nvalue = [980, 0, 0, 50, 0, 0]"] ;
97 -> 98 ;
99 [label="Shape <= 12.5\nentropy = 0.53\nsamples = 416\nvalue = [366, 0, 0, 50, 0, 0]"] ;
98 -> 99 ;
100 [label="entropy = 0.0\nsamples = 352\nvalue = [352, 0, 0, 0, 0, 0]"] ;
99 -> 100 ;
101 [label="LongFace <= 239.43\nentropy = 0.758\nsamples = 64\nvalue = [14, 0, 0, 50, 0, 0]"] ;
99 -> 101 ;
102 [label="entropy = 0.0\nsamples = 50\nvalue = [0, 0, 0, 50, 0, 0]"] ;
101 -> 102 ;
103 [label="entropy = 0.0\nsamples = 14\nvalue = [14, 0, 0, 0, 0, 0]"] ;
101 -> 103 ;
104 [label="entropy = 0.0\nsamples = 614\nvalue = [614, 0, 0, 0, 0, 0]"] ;
98 -> 104 ;
105 [label="LongFace <= 279.06\nentropy = 0.028\nsamples = 712\nvalue = [2, 0, 710, 0, 0, 0]"] ;
97 -> 105 ;
106 [label="LongFace <= 278.885\nentropy = 0.31\nsamples = 36\nvalue = [2, 0, 34, 0, 0, 0]"] ;
105 -> 106 ;
107 [label="entropy = 0.0\nsamples = 34\nvalue = [0, 0, 34, 0, 0, 0]"] ;
106 -> 107 ;
108 [label="entropy = 0.0\nsamples = 2\nvalue = [2, 0, 0, 0, 0, 0]"] ;
106 -> 108 ;
109 [label="entropy = 0.0\nsamples = 676\nvalue = [0, 0, 676, 0, 0, 0]"] ;
105 -> 109 ;
110 [label="Shape <= 13.5\nentropy = 0.211\nsamples = 1742\nvalue = [4, 0, 1688, 50, 0, 0]"] ;
96 -> 110 ;
111 [label="Shape <= 12.5\nentropy = 0.483\nsamples = 578\nvalue = [4, 0, 524, 50, 0, 0]"] ;
110 -> 111 ;
112 [label="LongFace <= 259.355\nentropy = 0.066\nsamples = 508\nvalue = [4, 0, 504, 0, 0, 0]"] ;
111 -> 112 ;
113 [label="entropy = 0.0\nsamples = 308\nvalue = [0, 0, 308, 0, 0, 0]"] ;
112 -> 113 ;
114 [label="LongFace <= 260.56\nentropy = 0.141\nsamples = 200\nvalue = [4, 0, 196, 0, 0, 0]"] ;
112 -> 114 ;
115 [label="entropy = 0.0\nsamples = 2\nvalue = [2, 0, 0, 0, 0, 0]"] ;
114 -> 115 ;
116 [label="LongFace <= 279.06\nentropy = 0.081\nsamples = 198\nvalue = [2, 0, 196, 0, 0, 0]"] ;
114 -> 116 ;
117 [label="LongFace <= 278.885\nentropy = 0.229\nsamples = 54\nvalue = [2, 0, 52, 0, 0, 0]"] ;
116 -> 117 ;
118 [label="entropy = 0.0\nsamples = 52\nvalue = [0, 0, 52, 0, 0, 0]"] ;
117 -> 118 ;
119 [label="entropy = 0.0\nsamples = 2\nvalue = [2, 0, 0, 0, 0, 0]"] ;
117 -> 119 ;
120 [label="entropy = 0.0\nsamples = 144\nvalue = [0, 0, 144, 0, 0, 0]"] ;
116 -> 120 ;
121 [label="LongFace <= 239.43\nentropy = 0.863\nsamples = 70\nvalue = [0, 0, 20, 50, 0, 0]"] ;
111 -> 121 ;
122 [label="entropy = 0.0\nsamples = 50\nvalue = [0, 0, 0, 50, 0, 0]"] ;
121 -> 122 ;
123 [label="entropy = 0.0\nsamples = 20\nvalue = [0, 0, 20, 0, 0, 0]"] ;
121 -> 123 ;
124 [label="entropy = 0.0\nsamples = 1164\nvalue = [0, 0, 1164, 0, 0, 0]"] ;
110 -> 124 ;
}